{"sizes":[54,27,1],"layers":[{"0":{},"1":{},"2":{},"3":{},"4":{},"5":{},"6":{},"7":{},"8":{},"9":{},"10":{},"11":{},"12":{},"13":{},"14":{},"15":{},"16":{},"17":{},"18":{},"19":{},"20":{},"21":{},"22":{},"23":{},"24":{},"25":{},"26":{},"27":{},"28":{},"29":{},"30":{},"31":{},"32":{},"33":{},"34":{},"35":{},"36":{},"37":{},"38":{},"39":{},"40":{},"41":{},"42":{},"43":{},"44":{},"45":{},"46":{},"47":{},"48":{},"49":{},"50":{},"51":{},"52":{},"53":{}},{"0":{"bias":-0.6617243885993958,"weights":{"0":-0.467722624540329,"1":-0.0387004017829895,"2":-0.008238507434725761,"3":-0.12937843799591064,"4":0.010103913955390453,"5":-0.020167678594589233,"6":-0.16710986196994781,"7":0.03910098969936371,"8":-0.09232310950756073,"9":-0.19092786312103271,"10":0.16021136939525604,"11":0.008455700241029263,"12":-0.1623951941728592,"13":0.10861055552959442,"14":-0.14843450486660004,"15":-0.27874645590782166,"16":-0.12118248641490936,"17":-0.08952037245035172,"18":-0.36417892575263977,"19":-0.1518470048904419,"20":0.015647543594241142,"21":-0.14764264225959778,"22":0.05530684068799019,"23":0.1668369323015213,"24":-0.3401821553707123,"25":0.0014262902550399303,"26":-0.1241404116153717,"27":-0.47417789697647095,"28":-0.14282791316509247,"29":-0.15044742822647095,"30":-0.24158599972724915,"31":-0.2194892317056656,"32":-0.04705367609858513,"33":-0.13929210603237152,"34":-0.027311723679304123,"35":0.006701982580125332,"36":-0.13196538388729095,"37":-0.09308407455682755,"38":-0.12519177794456482,"39":0.0023660040460526943,"40":-0.1951434314250946,"41":-0.08956460654735565,"42":-0.041733793914318085,"43":-0.015144117176532745,"44":-0.16248640418052673,"45":-0.07073488086462021,"46":-0.15024873614311218,"47":-0.0667399987578392,"48":-0.34957489371299744,"49":0.10845160484313965,"50":0.14595915377140045,"51":-0.14837272465229034,"52":-0.1138002946972847,"53":-0.1339912712574005}},"1":{"bias":-0.5672327280044556,"weights":{"0":-0.8691743016242981,"1":0.16238543391227722,"2":0.30987387895584106,"3":-0.14948084950447083,"4":0.045914679765701294,"5":0.08326997607946396,"6":-0.48958465456962585,"7":0.04356178268790245,"8":0.15194803476333618,"9":-0.02546275407075882,"10":0.23711086809635162,"11":-0.0013397004222497344,"12":-0.2045634388923645,"13":0.03629428520798683,"14":-0.18056200444698334,"15":0.025421541184186935,"16":0.16213710606098175,"17":0.06745975464582443,"18":-0.0799354538321495,"19":-0.01385471224784851,"20":0.00629053171724081,"21":-0.30454960465431213,"22":-0.14934861660003662,"23":-0.15637703239917755,"24":-0.09007366746664047,"25":0.11005048453807831,"26":0.42736998200416565,"27":-0.5140432119369507,"28":-0.1575213521718979,"29":-0.08364395797252655,"30":0.02442667819559574,"31":-0.22181843221187592,"32":-0.1720537394285202,"33":-0.02244625985622406,"34":0.014469492249190807,"35":-0.03867277503013611,"36":-0.27734217047691345,"37":-0.07836823165416718,"38":0.12047987431287766,"39":-0.19793768227100372,"40":-0.10142868012189865,"41":-0.05312724411487579,"42":-0.48063918948173523,"43":-0.3100215196609497,"44":-0.1779843270778656,"45":-0.6708681583404541,"46":-0.20041492581367493,"47":0.01997159607708454,"48":-0.3515104651451111,"49":0.028153646737337112,"50":0.13944600522518158,"51":-0.12006805837154388,"52":0.052409578114748,"53":-0.1319984644651413}},"2":{"bias":-0.051108989864587784,"weights":{"0":1.8222076892852783,"1":0.5422683358192444,"2":-2.519535779953003,"3":2.5297815799713135,"4":0.16500788927078247,"5":-0.5261703729629517,"6":2.7043235301971436,"7":-2.313680648803711,"8":-0.7478734850883484,"9":-1.388767123222351,"10":-1.401872992515564,"11":-0.8245525360107422,"12":0.7831569314002991,"13":-0.10869582742452621,"14":1.3130377531051636,"15":-0.22979286313056946,"16":-1.6788369417190552,"17":0.24901044368743896,"18":-1.711512804031372,"19":-1.817667841911316,"20":-1.448237657546997,"21":-1.4643391370773315,"22":-0.21559253334999084,"23":-1.027034044265747,"24":0.261976420879364,"25":1.9288897514343262,"26":0.08072124421596527,"27":0.6352116465568542,"28":-0.9284982681274414,"29":0.674373984336853,"30":-0.9425695538520813,"31":-1.3759716749191284,"32":-1.1674515008926392,"33":-3.3240396976470947,"34":0.12361191213130951,"35":2.6275734901428223,"36":-0.9594745635986328,"37":1.378220796585083,"38":1.0749315023422241,"39":-0.4296778440475464,"40":-0.1733839064836502,"41":-1.601393699645996,"42":-2.4149832725524902,"43":1.7349895238876343,"44":0.3699009120464325,"45":-0.37016594409942627,"46":1.0247573852539062,"47":0.9837970733642578,"48":0.12126468867063522,"49":-0.354512482881546,"50":1.1555129289627075,"51":-2.204423666000366,"52":1.9365243911743164,"53":1.1828877925872803}},"3":{"bias":-0.5520102381706238,"weights":{"0":0.6663923859596252,"1":0.14390653371810913,"2":-0.6234557628631592,"3":1.841295599937439,"4":0.3082594871520996,"5":-1.519997239112854,"6":-0.47601842880249023,"7":-0.03094654157757759,"8":-0.11477641016244888,"9":0.48228007555007935,"10":0.07678934186697006,"11":1.9961076974868774,"12":-1.2073445320129395,"13":0.9880774617195129,"14":0.13122639060020447,"15":-2.6567506790161133,"16":-1.0039491653442383,"17":-0.43030843138694763,"18":-0.0003185549285262823,"19":0.6097331047058105,"20":0.7646499872207642,"21":0.7161802053451538,"22":0.41524064540863037,"23":0.010659457184374332,"24":0.9497122168540955,"25":0.285671591758728,"26":0.47886592149734497,"27":-2.418178081512451,"28":-0.7982398867607117,"29":-0.5018853545188904,"30":-0.9478570818901062,"31":-0.5605584383010864,"32":-0.8315025568008423,"33":0.427911639213562,"34":-1.4647903442382812,"35":-0.1492614895105362,"36":0.2952442765235901,"37":-0.6964002847671509,"38":0.5732251405715942,"39":-2.222475051879883,"40":1.2350503206253052,"41":1.2877964973449707,"42":3.1522610187530518,"43":-0.6489855647087097,"44":0.9281837344169617,"45":0.5672152042388916,"46":0.8570473194122314,"47":-1.241155982017517,"48":-1.1297006607055664,"49":-0.3906252682209015,"50":-0.8640226721763611,"51":-1.3865247964859009,"52":-0.08579812943935394,"53":0.16925004124641418}},"4":{"bias":-0.4649348258972168,"weights":{"0":-0.4164060354232788,"1":0.007031879387795925,"2":-0.011033658869564533,"3":-0.07837475836277008,"4":-0.1437533050775528,"5":0.12292303144931793,"6":-0.23708319664001465,"7":0.07277152687311172,"8":-0.19562171399593353,"9":-0.25044435262680054,"10":-0.020899465307593346,"11":-0.12181112170219421,"12":-0.3537473976612091,"13":0.09238293766975403,"14":-0.04802578687667847,"15":-0.17897696793079376,"16":0.08263996243476868,"17":-0.19855405390262604,"18":-0.2623489797115326,"19":-0.02553246170282364,"20":0.15152540802955627,"21":-0.25321871042251587,"22":0.03602119907736778,"23":0.03686932101845741,"24":-0.09834377467632294,"25":0.05142367631196976,"26":-0.049109868705272675,"27":-0.3227216303348541,"28":0.1461372822523117,"29":-0.14693871140480042,"30":-0.1686575710773468,"31":0.0977710634469986,"32":-0.2531836926937103,"33":-0.28671637177467346,"34":0.11922907084226608,"35":0.03377487510442734,"36":-0.35608619451522827,"37":0.050160638988018036,"38":-0.11328025907278061,"39":-0.39644843339920044,"40":0.072230763733387,"41":-0.19488020241260529,"42":-0.1731162667274475,"43":0.06521618366241455,"44":0.07859674096107483,"45":-0.5583997964859009,"46":-0.06164656579494476,"47":-0.1813206970691681,"48":-0.03520658612251282,"49":-0.15216827392578125,"50":-0.1725834608078003,"51":-0.24372141063213348,"52":-0.11266770958900452,"53":-0.10242190212011337}},"5":{"bias":-0.9471010565757751,"weights":{"0":-0.8365131616592407,"1":-1.9213175773620605,"2":-0.8586733341217041,"3":-2.675098180770874,"4":0.06987472623586655,"5":0.5887956619262695,"6":0.7658273577690125,"7":0.3522495925426483,"8":-0.21075116097927094,"9":-0.06105487793684006,"10":-2.0325276851654053,"11":-2.2892942428588867,"12":0.3411806523799896,"13":-2.3769443035125732,"14":1.6175843477249146,"15":-0.7429051995277405,"16":2.026383638381958,"17":0.264608770608902,"18":-2.123901128768921,"19":-0.49032843112945557,"20":-1.0130411386489868,"21":-1.256973385810852,"22":-1.0413818359375,"23":-0.2510099709033966,"24":0.43559491634368896,"25":-0.5575528144836426,"26":-1.2306996583938599,"27":1.3017592430114746,"28":1.7033755779266357,"29":0.8453633785247803,"30":-4.217399597167969,"31":2.040861129760742,"32":0.45114409923553467,"33":2.073422431945801,"34":-0.39486512541770935,"35":-2.1397368907928467,"36":1.557163119316101,"37":-0.7406163215637207,"38":-1.3631950616836548,"39":0.9203683137893677,"40":-0.6166852116584778,"41":-1.1185110807418823,"42":-1.1368069648742676,"43":-0.9291374087333679,"44":0.1044052392244339,"45":1.5462703704833984,"46":-0.03933441638946533,"47":3.010575771331787,"48":0.29632943868637085,"49":2.1592960357666016,"50":1.770889163017273,"51":-0.1779956966638565,"52":1.436286449432373,"53":0.8837694525718689}},"6":{"bias":-0.4611753225326538,"weights":{"0":-0.36291348934173584,"1":-0.23391814529895782,"2":-0.34912729263305664,"3":-0.2794126272201538,"4":0.34017089009284973,"5":0.10261043906211853,"6":-0.029637275263667107,"7":0.34318119287490845,"8":-0.1896217167377472,"9":-0.49335721135139465,"10":0.015413344837725163,"11":0.6503415703773499,"12":-1.1417021751403809,"13":0.10102285444736481,"14":-0.8231950402259827,"15":-0.03649752959609032,"16":-0.06481536477804184,"17":-0.24448846280574799,"18":-0.8024390339851379,"19":-0.268785297870636,"20":0.1126813217997551,"21":0.03985368832945824,"22":-0.0039671133272349834,"23":0.1823767125606537,"24":0.24990791082382202,"25":-0.37208136916160583,"26":0.05143393948674202,"27":0.014705994166433811,"28":0.2964543402194977,"29":0.12792833149433136,"30":-0.2988956868648529,"31":-0.23742228746414185,"32":0.40119147300720215,"33":-0.04278741776943207,"34":-0.42570221424102783,"35":-0.2141215056180954,"36":-0.6732325553894043,"37":0.26490142941474915,"38":0.03389459103345871,"39":-0.5888270735740662,"40":-0.2627912163734436,"41":0.13263222575187683,"42":-0.7241345643997192,"43":-0.21132062375545502,"44":-0.3798125684261322,"45":-0.9899881482124329,"46":-0.09775424003601074,"47":0.17228440940380096,"48":-0.5095918774604797,"49":0.09980645030736923,"50":0.12601011991500854,"51":-0.49268972873687744,"52":0.10427746176719666,"53":0.01929694227874279}},"7":{"bias":-0.2162960022687912,"weights":{"0":-0.6924911141395569,"1":-0.062248826026916504,"2":0.266806423664093,"3":0.04603198543190956,"4":-0.11369100958108902,"5":0.19962885975837708,"6":-0.2688591480255127,"7":-0.014193649403750896,"8":0.06316807866096497,"9":-0.21275834739208221,"10":0.04205155372619629,"11":0.001780229271389544,"12":-0.1862577497959137,"13":-0.21488358080387115,"14":-0.2364453673362732,"15":-0.09119303524494171,"16":0.2260621339082718,"17":0.07160267233848572,"18":-0.5041560530662537,"19":0.17966732382774353,"20":-0.05058075115084648,"21":-0.16920161247253418,"22":-0.1594434231519699,"23":0.1077091246843338,"24":-0.3911376893520355,"25":0.17425130307674408,"26":0.3888866901397705,"27":-0.503913164138794,"28":-0.22052764892578125,"29":0.023389311507344246,"30":-0.12825855612754822,"31":-0.009378017857670784,"32":0.0835869312286377,"33":-0.10808643698692322,"34":-0.09977659583091736,"35":0.025544898584485054,"36":-0.37734508514404297,"37":-0.1495264172554016,"38":0.18561270833015442,"39":-0.43295514583587646,"40":-0.08802676200866699,"41":0.04219725355505943,"42":-0.5456633567810059,"43":-0.060338303446769714,"44":-0.07203079760074615,"45":-0.6993333697319031,"46":-0.08071912825107574,"47":-0.16848242282867432,"48":-0.15225747227668762,"49":-0.19570772349834442,"50":-0.0776810348033905,"51":0.14125807583332062,"52":-0.12344823032617569,"53":-0.19476455450057983}},"8":{"bias":-0.39918452501296997,"weights":{"0":-0.39862823486328125,"1":-0.11406007409095764,"2":-0.21390317380428314,"3":-0.32011139392852783,"4":0.10198722779750824,"5":-0.022992398589849472,"6":-0.2666419446468353,"7":-0.17425523698329926,"8":-0.06612087786197662,"9":-0.2838517129421234,"10":0.07803492993116379,"11":0.09102902561426163,"12":-0.38193291425704956,"13":0.05241599306464195,"14":-0.10949722677469254,"15":-0.22454997897148132,"16":0.03797786682844162,"17":0.12418355792760849,"18":-0.2360711693763733,"19":-0.13523359596729279,"20":-0.0574493482708931,"21":-0.3128906488418579,"22":-0.10984892398118973,"23":-0.06460346281528473,"24":-0.07479037344455719,"25":0.016066519543528557,"26":0.050244539976119995,"27":-0.44869163632392883,"28":0.20022210478782654,"29":0.04644232243299484,"30":-0.3484551012516022,"31":-0.0003383534785825759,"32":0.1141575425863266,"33":-0.06616717576980591,"34":-0.22784920036792755,"35":-0.2715795040130615,"36":-0.34034234285354614,"37":-0.06573695689439774,"38":0.12074346840381622,"39":-0.07086077332496643,"40":0.07062241435050964,"41":-0.11129139363765717,"42":-0.31975799798965454,"43":0.0007433432620018721,"44":-0.14863064885139465,"45":-0.1991882622241974,"46":-0.08773846924304962,"47":-0.004192321561276913,"48":-0.026715083047747612,"49":0.07947558909654617,"50":0.052140362560749054,"51":-0.2921023666858673,"52":0.03144467994570732,"53":-0.14110642671585083}},"9":{"bias":-0.3587580621242523,"weights":{"0":-0.20778949558734894,"1":-0.002909451024606824,"2":-0.16336558759212494,"3":-0.3519969880580902,"4":0.0034016105346381664,"5":-0.07701721787452698,"6":-0.10538043826818466,"7":-0.004043804947286844,"8":-0.07404637336730957,"9":-0.3354562520980835,"10":-0.08710182458162308,"11":0.0873468816280365,"12":0.4461685121059418,"13":0.07740289717912674,"14":-0.3839441239833832,"15":-0.23168590664863586,"16":-0.13257281482219696,"17":-0.09409071505069733,"18":0.18332301080226898,"19":0.22723868489265442,"20":0.21153095364570618,"21":0.3197859227657318,"22":0.07686343789100647,"23":-0.11472607403993607,"24":-0.7554252743721008,"25":-0.29504087567329407,"26":-0.3395005166530609,"27":-0.23604260385036469,"28":0.37751656770706177,"29":-0.029777856543660164,"30":-0.6726261973381042,"31":-0.09849054366350174,"32":0.1305113434791565,"33":0.09829992055892944,"34":0.08578899502754211,"35":-0.04470501467585564,"36":-0.6313958764076233,"37":0.1640380173921585,"38":0.06194012612104416,"39":-0.07545803487300873,"40":-0.3142613172531128,"41":0.20898409187793732,"42":0.32934483885765076,"43":0.060396358370780945,"44":0.059308554977178574,"45":-0.05320804938673973,"46":-0.009922891855239868,"47":-0.07738230377435684,"48":-0.6640880107879639,"49":0.04151756316423416,"50":0.15213467180728912,"51":-0.705445408821106,"52":0.027339709922671318,"53":0.07146578282117844}},"10":{"bias":-0.4287886321544647,"weights":{"0":-0.3086664378643036,"1":0.13697725534439087,"2":-0.030754193663597107,"3":-0.05462843179702759,"4":0.1785835176706314,"5":-0.1583928018808365,"6":-0.2003132402896881,"7":0.14595788717269897,"8":0.1400698721408844,"9":-0.17509344220161438,"10":-0.1261531412601471,"11":0.018053412437438965,"12":-0.3602186441421509,"13":-0.0629793107509613,"14":-0.11880501359701157,"15":0.035822685807943344,"16":-0.17209555208683014,"17":0.07177092880010605,"18":-0.4227956533432007,"19":-0.2222505658864975,"20":-0.20011331140995026,"21":-0.22246277332305908,"22":-0.15443667769432068,"23":-0.005794298369437456,"24":-0.0005405368283390999,"25":0.07252011448144913,"26":-0.016519995406270027,"27":-0.483775794506073,"28":-0.07966138422489166,"29":-0.12186586111783981,"30":-0.45158690214157104,"31":0.040140457451343536,"32":0.05441218614578247,"33":-0.07224943488836288,"34":-0.28338393568992615,"35":-0.39282023906707764,"36":-0.38775286078453064,"37":0.05269414931535721,"38":-0.06670509278774261,"39":-0.374457985162735,"40":-0.1709025800228119,"41":-0.10751290619373322,"42":-0.032322123646736145,"43":-0.10047387331724167,"44":-0.09079694002866745,"45":-0.3686315715312958,"46":0.039535798132419586,"47":0.07478383183479309,"48":-0.16569161415100098,"49":-0.15479493141174316,"50":0.008077802136540413,"51":-0.2180575728416443,"52":-0.12960417568683624,"53":-0.027259845286607742}},"11":{"bias":-0.004540424793958664,"weights":{"0":-0.040557391941547394,"1":-0.36946901679039,"2":-0.33222395181655884,"3":-0.6191856861114502,"4":-0.3602827191352844,"5":-0.285243421792984,"6":-0.764834463596344,"7":-0.1094895601272583,"8":0.2580249309539795,"9":0.36124780774116516,"10":-0.023766009137034416,"11":-0.0883183628320694,"12":0.5438907742500305,"13":0.16252729296684265,"14":-0.4831821024417877,"15":-0.9337191581726074,"16":-0.05922845005989075,"17":0.040327977389097214,"18":0.22759628295898438,"19":-0.573453962802887,"20":-0.37156587839126587,"21":-0.9792045950889587,"22":0.07084254175424576,"23":-0.026332397013902664,"24":-1.1199053525924683,"25":-0.5327479243278503,"26":-0.6175605654716492,"27":-0.30488425493240356,"28":0.3270482122898102,"29":0.016660436987876892,"30":-0.9443566203117371,"31":-0.11807994544506073,"32":0.29654204845428467,"33":-0.934540331363678,"34":0.03370683640241623,"35":0.6608481407165527,"36":-0.977664053440094,"37":0.3386847674846649,"38":0.013184147886931896,"39":-2.1839168071746826,"40":0.025746645405888557,"41":0.5095893144607544,"42":0.7276695370674133,"43":0.241162970662117,"44":-0.046214789152145386,"45":1.775058388710022,"46":0.316786527633667,"47":0.30659952759742737,"48":-1.0793503522872925,"49":0.09049402922391891,"50":0.43072012066841125,"51":2.0059633255004883,"52":0.9304559826850891,"53":-0.058710016310214996}},"12":{"bias":-0.36492404341697693,"weights":{"0":-0.15147052705287933,"1":-0.17419405281543732,"2":-0.10744594782590866,"3":-0.22527462244033813,"4":-0.06613516062498093,"5":0.09626414626836777,"6":-0.3903179466724396,"7":-0.21058623492717743,"8":-0.1616939753293991,"9":-0.34525781869888306,"10":-0.0714360922574997,"11":-0.0439549945294857,"12":-0.42300060391426086,"13":0.15758627653121948,"14":-0.32146281003952026,"15":-0.09228500723838806,"16":-0.06770144402980804,"17":-0.006602332927286625,"18":-0.10519759356975555,"19":0.01060793362557888,"20":-0.012707267887890339,"21":-0.2405492514371872,"22":-0.14769987761974335,"23":0.1213453859090805,"24":-0.21365277469158173,"25":-0.13168880343437195,"26":0.05113886669278145,"27":-0.06506946682929993,"28":0.08412158489227295,"29":0.12768809497356415,"30":-0.20674565434455872,"31":-0.24143655598163605,"32":0.21002276241779327,"33":-0.4918026924133301,"34":0.07546241581439972,"35":-0.016003606840968132,"36":-0.053560979664325714,"37":0.047408733516931534,"38":-0.0198233500123024,"39":-0.30800169706344604,"40":-0.11335641890764236,"41":-0.1903027892112732,"42":-0.410503089427948,"43":-0.12037495523691177,"44":0.02803242765367031,"45":-0.026295548304915428,"46":0.0478072389960289,"47":-0.23484201729297638,"48":-0.15039609372615814,"49":-0.053863298147916794,"50":-0.004251297563314438,"51":-0.3808707892894745,"52":0.1214042380452156,"53":-0.037796054035425186}},"13":{"bias":-0.3303045332431793,"weights":{"0":-1.0718172788619995,"1":-0.19910384714603424,"2":-1.5464742183685303,"3":2.0081675052642822,"4":0.32484716176986694,"5":0.40048956871032715,"6":1.0743253231048584,"7":0.9937450885772705,"8":0.1589777022600174,"9":-1.8350956439971924,"10":0.4880002439022064,"11":2.4525413513183594,"12":-0.620385468006134,"13":0.9045039415359497,"14":-1.6812620162963867,"15":-0.3130151927471161,"16":-0.3698139786720276,"17":-2.147916793823242,"18":-2.2325387001037598,"19":-0.31082403659820557,"20":0.4914742112159729,"21":-1.1212568283081055,"22":0.9667137265205383,"23":0.39888468384742737,"24":6.12987756729126,"25":-1.2543244361877441,"26":0.7284544706344604,"27":0.037483543157577515,"28":-0.14452789723873138,"29":-2.005234718322754,"30":-1.1831134557724,"31":-2.129950523376465,"32":1.1396770477294922,"33":-0.7499019503593445,"34":-0.9257861971855164,"35":-0.44110554456710815,"36":-1.8275988101959229,"37":1.173018217086792,"38":-0.3771207332611084,"39":-0.6103846430778503,"40":1.1813286542892456,"41":-0.3954008221626282,"42":-2.9403746128082275,"43":-2.3428122997283936,"44":-1.5659406185150146,"45":-2.646545648574829,"46":0.42397335171699524,"47":1.9411451816558838,"48":0.7713603973388672,"49":-0.05197818577289581,"50":-0.18987208604812622,"51":1.3766573667526245,"52":1.5685144662857056,"53":2.072234869003296}},"14":{"bias":0.27266716957092285,"weights":{"0":-1.8107188940048218,"1":0.5650269985198975,"2":0.6206279993057251,"3":0.0868469774723053,"4":-0.0956975519657135,"5":0.04630197957158089,"6":-0.2961786687374115,"7":0.8463754653930664,"8":-0.18214651942253113,"9":0.989794135093689,"10":0.6265658736228943,"11":0.30557405948638916,"12":0.14180819690227509,"13":0.06314718723297119,"14":-1.1817458868026733,"15":-0.5443903207778931,"16":0.35952916741371155,"17":0.016195671632885933,"18":1.4643709659576416,"19":0.5718514323234558,"20":-0.5287291407585144,"21":-1.7357356548309326,"22":-0.3344575762748718,"23":-0.3375069499015808,"24":-0.37612491846084595,"25":-0.011555840261280537,"26":1.8062845468521118,"27":-0.019452402368187904,"28":-0.3413345515727997,"29":-0.006103108171373606,"30":0.7204113006591797,"31":0.12660257518291473,"32":0.3232494592666626,"33":0.801863431930542,"34":0.08497688174247742,"35":-0.49601954221725464,"36":-0.15940849483013153,"37":0.3758731186389923,"38":0.8706685304641724,"39":-0.7546578049659729,"40":-0.8217942118644714,"41":0.38955798745155334,"42":-2.2666265964508057,"43":-0.8321570158004761,"44":0.47353366017341614,"45":-1.4262388944625854,"46":-0.44145089387893677,"47":-0.46921050548553467,"48":-0.2688153088092804,"49":0.25048038363456726,"50":-0.2235235571861267,"51":0.3638606369495392,"52":-0.511340856552124,"53":-0.5891169309616089}},"15":{"bias":-0.4493882656097412,"weights":{"0":-0.5061285495758057,"1":-0.17124344408512115,"2":-0.2016436755657196,"3":-0.20126375555992126,"4":-0.05257740989327431,"5":-0.07423075288534164,"6":-0.2404492348432541,"7":-0.0441264733672142,"8":-0.004508732818067074,"9":-0.03750152885913849,"10":0.18654188513755798,"11":0.1510736644268036,"12":-0.4119631350040436,"13":0.1544928252696991,"14":-0.1671227216720581,"15":-0.1752833127975464,"16":-0.015014280565083027,"17":-0.17235811054706573,"18":-0.20052047073841095,"19":0.052809249609708786,"20":-0.1699366271495819,"21":-0.17026114463806152,"22":-0.10281983017921448,"23":-0.1811886876821518,"24":-0.07921753823757172,"25":-0.09704820811748505,"26":0.12784133851528168,"27":-0.41289734840393066,"28":0.06997139751911163,"29":-0.09719737619161606,"30":-0.24552688002586365,"31":0.09780558198690414,"32":-0.09464164078235626,"33":-0.2710484564304352,"34":0.05254735052585602,"35":-0.041975099593400955,"36":-0.40887394547462463,"37":0.06313895434141159,"38":-0.15175947546958923,"39":-0.053062815219163895,"40":0.0359230637550354,"41":-0.15008839964866638,"42":-0.1433863341808319,"43":-0.17726591229438782,"44":-0.03864694759249687,"45":-0.418367862701416,"46":0.13498985767364502,"47":-0.0767567828297615,"48":-0.06843048334121704,"49":0.023907916620373726,"50":-0.20647916197776794,"51":-0.3431985676288605,"52":-0.01890122890472412,"53":0.01782117411494255}},"16":{"bias":-0.5923552513122559,"weights":{"0":-0.5297510623931885,"1":-0.14304950833320618,"2":0.15874013304710388,"3":-0.10227642953395844,"4":-0.023692388087511063,"5":-0.08448020368814468,"6":-0.008308560587465763,"7":-0.186216801404953,"8":-0.030756210908293724,"9":-0.02936931699514389,"10":0.08422128856182098,"11":-0.3067873418331146,"12":-0.4009561240673065,"13":-0.1564425230026245,"14":0.4117751121520996,"15":-0.4352659583091736,"16":-0.18739713728427887,"17":0.009646362625062466,"18":-0.04915435239672661,"19":0.31266701221466064,"20":-0.11765016615390778,"21":-0.7386916279792786,"22":-0.03218391165137291,"23":-0.16376180946826935,"24":-0.47572043538093567,"25":0.02348124049603939,"26":-0.2161683440208435,"27":-0.05263247340917587,"28":-0.34508073329925537,"29":-0.3461263179779053,"30":-0.26292189955711365,"31":-0.03337128087878227,"32":-0.2515906095504761,"33":-0.16627253592014313,"34":-0.17470592260360718,"35":0.15835794806480408,"36":-0.023638825863599777,"37":-0.08322418481111526,"38":0.07334854453802109,"39":-0.4392242431640625,"40":-0.13494692742824554,"41":-0.07559344917535782,"42":-0.9337578415870667,"43":0.04886464774608612,"44":0.1554277539253235,"45":-0.7325902581214905,"46":0.0005060814437456429,"47":0.009391097351908684,"48":-0.3058162331581116,"49":0.2497628778219223,"50":-0.18895550072193146,"51":-0.26781123876571655,"52":0.060392532497644424,"53":0.015201376751065254}},"17":{"bias":-0.3456726670265198,"weights":{"0":-1.8011746406555176,"1":0.9750449061393738,"2":0.4712650179862976,"3":0.07172206789255142,"4":0.4647597074508667,"5":0.5601104497909546,"6":-1.0834711790084839,"7":0.5884529948234558,"8":-0.1740848869085312,"9":-0.7384809851646423,"10":0.33671554923057556,"11":-0.9603697657585144,"12":1.3017933368682861,"13":-0.8485897183418274,"14":-0.9125028252601624,"15":1.3877294063568115,"16":0.7635748982429504,"17":0.18911950290203094,"18":-2.2120747566223145,"19":-1.282027006149292,"20":-0.49751195311546326,"21":0.03411506116390228,"22":-1.0357383489608765,"23":-0.7409989237785339,"24":0.2933557629585266,"25":0.5440412759780884,"26":1.1939127445220947,"27":-0.5539461374282837,"28":-0.16207869350910187,"29":0.24682793021202087,"30":0.15119604766368866,"31":0.550873875617981,"32":0.3891986012458801,"33":0.08511552959680557,"34":0.4478653073310852,"35":-0.38858723640441895,"36":-0.5939457416534424,"37":-0.24790386855602264,"38":0.32193997502326965,"39":0.2760229706764221,"40":-0.3802326023578644,"41":-0.2858283519744873,"42":-0.6368873119354248,"43":-0.289323091506958,"44":-0.2953493893146515,"45":-0.9355005621910095,"46":-0.14611829817295074,"47":0.24033613502979279,"48":0.9152481555938721,"49":0.3173229992389679,"50":0.6451778411865234,"51":1.3467439413070679,"52":-0.4081036150455475,"53":-0.2948845326900482}},"18":{"bias":-0.5020999312400818,"weights":{"0":-0.26537591218948364,"1":0.238420307636261,"2":-0.045998286455869675,"3":0.18213476240634918,"4":-0.03281722962856293,"5":-0.19201938807964325,"6":0.13138899207115173,"7":-0.27680984139442444,"8":-0.1583983153104782,"9":-0.7600183486938477,"10":-0.014303404837846756,"11":-0.2513054609298706,"12":-0.45294108986854553,"13":-0.3882238566875458,"14":0.36192816495895386,"15":-0.13599777221679688,"16":0.11072766780853271,"17":0.20264028012752533,"18":-0.5019470453262329,"19":-0.1816645711660385,"20":-0.27292460203170776,"21":0.11277995258569717,"22":-0.13285665214061737,"23":-0.15246321260929108,"24":-0.04706204682588577,"25":0.15361922979354858,"26":-0.006426874548196793,"27":-0.4356096684932709,"28":-0.018915414810180664,"29":-0.22374588251113892,"30":-0.4214414954185486,"31":0.09692985564470291,"32":-0.21704226732254028,"33":-0.7314949035644531,"34":-0.11655643582344055,"35":0.36640307307243347,"36":-0.7508727312088013,"37":-0.025977848097682,"38":-0.046668510884046555,"39":-0.24351505935192108,"40":0.23641058802604675,"41":0.03547024354338646,"42":-0.5394525527954102,"43":-0.19950182735919952,"44":0.031060317531228065,"45":-0.5347590446472168,"46":0.26010891795158386,"47":-0.23136484622955322,"48":-0.08742745220661163,"49":-0.15748944878578186,"50":-0.03303343802690506,"51":-0.291930615901947,"52":-0.05470569059252739,"53":0.1755364090204239}},"19":{"bias":-0.8033844232559204,"weights":{"0":0.9047552347183228,"1":-0.6047250628471375,"2":-1.1125130653381348,"3":0.3733166456222534,"4":1.190812349319458,"5":1.2279928922653198,"6":3.203091621398926,"7":-0.7239075899124146,"8":-0.6599403023719788,"9":2.056927442550659,"10":0.7057811617851257,"11":1.1681944131851196,"12":0.5091992020606995,"13":-1.495025634765625,"14":-2.5027477741241455,"15":-3.8116767406463623,"16":1.0626333951950073,"17":-0.48847153782844543,"18":-1.2049577236175537,"19":-0.9743723273277283,"20":-0.7970258593559265,"21":-0.20737528800964355,"22":-0.41937798261642456,"23":-1.3115350008010864,"24":0.6267053484916687,"25":-3.5608181953430176,"26":0.24393363296985626,"27":-3.3101658821105957,"28":0.22294706106185913,"29":-0.3892920911312103,"30":-2.8450238704681396,"31":-0.21099430322647095,"32":1.4010919332504272,"33":1.8268098831176758,"34":0.4654307961463928,"35":-0.27679044008255005,"36":-1.6629672050476074,"37":2.0915772914886475,"38":1.7537554502487183,"39":-1.3099098205566406,"40":-0.9174838066101074,"41":-1.634561538696289,"42":2.995424270629883,"43":0.38329100608825684,"44":-0.6123142242431641,"45":-3.0891666412353516,"46":-0.5782492756843567,"47":1.4662082195281982,"48":0.14137022197246552,"49":0.7715307474136353,"50":0.42607980966567993,"51":-0.2826157510280609,"52":1.2305928468704224,"53":0.9318543672561646}},"20":{"bias":-0.5535299181938171,"weights":{"0":-0.4930119812488556,"1":0.46755337715148926,"2":-0.22758865356445312,"3":0.060135211795568466,"4":-0.10157248377799988,"5":0.056268032640218735,"6":-0.3645291030406952,"7":-0.11405891925096512,"8":-0.08817631751298904,"9":-0.37259912490844727,"10":0.10530247539281845,"11":0.18857263028621674,"12":-1.3191800117492676,"13":-0.2496260702610016,"14":0.2598789930343628,"15":-0.7510815858840942,"16":-0.2048608958721161,"17":0.082191601395607,"18":-0.33369144797325134,"19":0.4527939558029175,"20":0.04210866615176201,"21":0.1456812471151352,"22":0.30337315797805786,"23":-0.12325754761695862,"24":0.07758420705795288,"25":0.4300398826599121,"26":-0.10491132736206055,"27":-0.30781233310699463,"28":-0.4969119429588318,"29":-0.5942858457565308,"30":-0.4839279055595398,"31":-0.1793316751718521,"32":-0.7102036476135254,"33":-0.10099231451749802,"34":-0.32566529512405396,"35":-0.03518813103437424,"36":-0.41734778881073,"37":-0.20678706467151642,"38":-0.03432890772819519,"39":-0.5659297704696655,"40":0.3103261888027191,"41":0.2703627049922943,"42":0.5770059823989868,"43":-0.30639269948005676,"44":0.2796655595302582,"45":-0.6450709700584412,"46":0.21694792807102203,"47":-0.38502463698387146,"48":-0.34213584661483765,"49":-0.16008616983890533,"50":-0.28427207469940186,"51":0.1605989634990692,"52":-0.16726474463939667,"53":0.014941809698939323}},"21":{"bias":-0.9175996780395508,"weights":{"0":-0.7775362730026245,"1":1.2578672170639038,"2":0.10912251472473145,"3":1.0603152513504028,"4":1.5485363006591797,"5":-0.13375280797481537,"6":0.45504459738731384,"7":-0.21973226964473724,"8":0.8559175133705139,"9":-2.2025187015533447,"10":0.3351132869720459,"11":0.322361558675766,"12":-3.7784759998321533,"13":-0.044396694749593735,"14":-2.604076385498047,"15":0.947268009185791,"16":0.11413507163524628,"17":1.4185439348220825,"18":1.425034761428833,"19":-1.027515172958374,"20":1.255711555480957,"21":-0.045599959790706635,"22":-0.9996404647827148,"23":-0.1752031147480011,"24":0.03480490297079086,"25":1.1004127264022827,"26":0.45778051018714905,"27":0.04766441881656647,"28":-0.10998068749904633,"29":1.737770915031433,"30":-0.5342162251472473,"31":-0.15560467541217804,"32":-0.12585458159446716,"33":-0.48709648847579956,"34":-0.7499935626983643,"35":-0.9230369925498962,"36":2.0758886337280273,"37":0.8193162679672241,"38":0.2821466326713562,"39":-2.0282363891601562,"40":-1.9569344520568848,"41":-0.06927460432052612,"42":-0.5024802088737488,"43":0.590160608291626,"44":-0.21840158104896545,"45":3.101821184158325,"46":-0.5704569220542908,"47":-2.0941696166992188,"48":-0.1825132519006729,"49":-1.336974024772644,"50":-0.7493363618850708,"51":-2.5457253456115723,"52":-0.344815194606781,"53":-0.035737618803977966}},"22":{"bias":-0.7806100249290466,"weights":{"0":1.6383581161499023,"1":0.6945831775665283,"2":-0.1637495756149292,"3":-0.8558827638626099,"4":-0.17903870344161987,"5":-0.4746118485927582,"6":1.7300926446914673,"7":-0.6184863448143005,"8":-0.0977703183889389,"9":-0.3690524101257324,"10":-0.14485998451709747,"11":1.0925112962722778,"12":-2.852288007736206,"13":-0.33330237865448,"14":0.8435161113739014,"15":-1.2549376487731934,"16":-0.6275520324707031,"17":-0.5065269470214844,"18":1.4240179061889648,"19":1.338837742805481,"20":0.07658256590366364,"21":0.6024430990219116,"22":1.5509848594665527,"23":0.5426173210144043,"24":0.664827287197113,"25":0.5062671899795532,"26":-0.5497978925704956,"27":0.41543877124786377,"28":0.14583644270896912,"29":-0.833521842956543,"30":-1.805184006690979,"31":-0.3454035222530365,"32":-0.9279573559761047,"33":-1.4606037139892578,"34":-1.2811213731765747,"35":-0.8801124691963196,"36":-1.4057632684707642,"37":-0.29637888073921204,"38":0.26256895065307617,"39":-0.9492893815040588,"40":0.0901239737868309,"41":1.082295298576355,"42":1.3828485012054443,"43":-1.147355079650879,"44":0.8282503485679626,"45":-0.8260209560394287,"46":-0.2865743041038513,"47":-0.7940855026245117,"48":0.14336466789245605,"49":-0.08438893407583237,"50":-0.7189507484436035,"51":0.8982429504394531,"52":1.030856966972351,"53":0.3063797056674957}},"23":{"bias":-0.19150860607624054,"weights":{"0":-0.27114564180374146,"1":-0.12157373130321503,"2":-0.4529092013835907,"3":-0.3136102557182312,"4":0.11795157939195633,"5":0.009310726076364517,"6":-0.48928704857826233,"7":0.12667329609394073,"8":0.04945315048098564,"9":0.02842281199991703,"10":-0.09476900845766068,"11":0.39665937423706055,"12":-1.164522409439087,"13":0.22062774002552032,"14":-0.6978665590286255,"15":-0.495398610830307,"16":0.03491782769560814,"17":-0.13333289325237274,"18":-0.5726324319839478,"19":-0.5783458948135376,"20":0.06885024905204773,"21":-0.8143854141235352,"22":-0.0011358606861904263,"23":0.13281427323818207,"24":0.8514767289161682,"25":-0.16711711883544922,"26":-0.18455053865909576,"27":-0.4053751528263092,"28":-0.10116162151098251,"29":-0.025546753779053688,"30":-0.059332508593797684,"31":-0.25623393058776855,"32":0.47057196497917175,"33":-0.5655654668807983,"34":-0.2391171157360077,"35":-0.3221265971660614,"36":-0.516083300113678,"37":0.26062828302383423,"38":0.12909935414791107,"39":-0.6320027709007263,"40":-0.07987939566373825,"41":0.26582032442092896,"42":-0.9281318187713623,"43":-0.04515060782432556,"44":-0.2775956988334656,"45":0.2550257742404938,"46":0.2950418293476105,"47":0.16643774509429932,"48":0.3231440782546997,"49":-0.16898299753665924,"50":-0.06341679394245148,"51":0.24325966835021973,"52":0.47534435987472534,"53":0.12411671131849289}},"24":{"bias":-0.5121845602989197,"weights":{"0":-0.6211672425270081,"1":0.009936397895216942,"2":-0.1128234714269638,"3":-0.15506166219711304,"4":0.15140552818775177,"5":-0.07841774821281433,"6":-0.36783531308174133,"7":0.14771132171154022,"8":0.06235319748520851,"9":-0.1600339412689209,"10":-0.15345601737499237,"11":-0.15178565680980682,"12":-0.6972121000289917,"13":-0.10455860942602158,"14":0.2423418164253235,"15":-0.5317167043685913,"16":-0.03255952522158623,"17":0.13444435596466064,"18":-0.5276914238929749,"19":0.10438615083694458,"20":0.15567664802074432,"21":-0.4453212022781372,"22":-0.10659045726060867,"23":0.07431860268115997,"24":-0.03871683403849602,"25":0.15019424259662628,"26":-0.11520351469516754,"27":-0.04679306596517563,"28":-0.3925997018814087,"29":-0.11809686571359634,"30":-0.3689829111099243,"31":-0.03999318927526474,"32":-0.23172228038311005,"33":0.20395153760910034,"34":-0.19247984886169434,"35":-0.3361387550830841,"36":-0.0278713908046484,"37":0.03527596592903137,"38":-0.03686090186238289,"39":-0.4263456165790558,"40":-0.03445303067564964,"41":-0.07011527568101883,"42":0.10251180082559586,"43":-0.27410221099853516,"44":-0.07221964001655579,"45":-0.7235974669456482,"46":0.14011719822883606,"47":-0.08657905459403992,"48":-0.29212653636932373,"49":-0.0018299828516319394,"50":0.07585790008306503,"51":0.0011468911543488503,"52":0.02006698027253151,"53":-0.24464844167232513}},"25":{"bias":-0.3738303780555725,"weights":{"0":-0.30787813663482666,"1":-0.16789095103740692,"2":0.03719339892268181,"3":-0.09639882296323776,"4":0.15032236278057098,"5":0.10926885157823563,"6":-0.2975960969924927,"7":0.09819595515727997,"8":-0.09265625476837158,"9":-0.058664221316576004,"10":0.08718933165073395,"11":0.12358458340167999,"12":-0.05649767071008682,"13":0.10044735670089722,"14":-0.08453313261270523,"15":-0.3672226071357727,"16":0.11148250848054886,"17":-0.0006912585813552141,"18":-0.2882845401763916,"19":-0.0053784498013556,"20":0.03074616938829422,"21":-0.21393413841724396,"22":-0.10363369435071945,"23":-0.07140132039785385,"24":-0.4147510528564453,"25":-0.03267068415880203,"26":-0.016580473631620407,"27":-0.2924017012119293,"28":0.1260129064321518,"29":0.14405328035354614,"30":-0.21826410293579102,"31":-0.158602774143219,"32":-0.23021765053272247,"33":-0.17942394316196442,"34":-0.154220849275589,"35":-0.000535788363777101,"36":-0.30391421914100647,"37":-0.0925707295536995,"38":0.14576007425785065,"39":-0.41836774349212646,"40":0.04074421152472496,"41":-0.235617533326149,"42":-0.48982900381088257,"43":-0.1820843666791916,"44":0.008800923824310303,"45":-0.3148000240325928,"46":-0.1201496496796608,"47":-0.05714844539761543,"48":-0.15019775927066803,"49":-0.18964481353759766,"50":-0.17142213881015778,"51":-0.18177613615989685,"52":0.11103285849094391,"53":0.04155290871858597}},"26":{"bias":-0.42601579427719116,"weights":{"0":-0.10571947693824768,"1":0.029004545882344246,"2":-0.15507282316684723,"3":-0.10863439738750458,"4":-0.01129871979355812,"5":-0.09972051531076431,"6":-0.1812613159418106,"7":-0.011267007328569889,"8":0.12895849347114563,"9":-0.23766349256038666,"10":-0.13460631668567657,"11":-0.11994433403015137,"12":-0.07612991333007812,"13":0.09513065218925476,"14":-0.4006047248840332,"15":-0.36090710759162903,"16":0.10091064870357513,"17":-0.07865767925977707,"18":-0.3119643032550812,"19":-0.20600596070289612,"20":-0.2466781884431839,"21":-0.2767493724822998,"22":0.0011280570179224014,"23":-0.21910470724105835,"24":-0.3402729034423828,"25":-0.3028427064418793,"26":0.12596632540225983,"27":-0.14693912863731384,"28":0.07747666537761688,"29":0.11489879339933395,"30":-0.5077304244041443,"31":-0.13977602124214172,"32":0.2005617618560791,"33":-0.25611576437950134,"34":-0.20897336304187775,"35":-0.0508703775703907,"36":-0.21936751902103424,"37":-0.08114704489707947,"38":-0.10595203191041946,"39":-0.3824958801269531,"40":-0.03059830144047737,"41":-0.06632424890995026,"42":0.05335629731416702,"43":-0.16886165738105774,"44":-0.04235740005970001,"45":-0.33468297123908997,"46":-0.2516736090183258,"47":0.1633952260017395,"48":-0.32386544346809387,"49":0.12996523082256317,"50":-0.000807959761004895,"51":-0.2601902484893799,"52":-0.14509204030036926,"53":0.053901683539152145}}},{"0":{"bias":-1.2133427858352661,"weights":{"0":-0.13276895880699158,"1":0.5625446438789368,"2":7.196304798126221,"3":4.11732292175293,"4":0.019214363768696785,"5":5.543719291687012,"6":-0.9224913120269775,"7":0.5233999490737915,"8":-0.055800363421440125,"9":-1.0400887727737427,"10":0.16425396502017975,"11":-3.0368235111236572,"12":-0.35474279522895813,"13":-5.5481462478637695,"14":3.0979766845703125,"15":-0.033608801662921906,"16":0.4872552752494812,"17":2.928112268447876,"18":0.46086031198501587,"19":-6.567811489105225,"20":0.8822941184043884,"21":-4.8638153076171875,"22":3.727993965148926,"23":-1.2013593912124634,"24":0.46828562021255493,"25":-0.09145001322031021,"26":-0.30538326501846313}}}],"outputLookup":false,"inputLookup":false,"activation":"sigmoid","trainOpts":{"iterations":20000,"errorThresh":0.005,"log":true,"logPeriod":100,"learningRate":0.3,"momentum":0.1,"callbackPeriod":10}}