{"sizes":[36,18,2],"layers":[{"0":{},"1":{},"2":{},"3":{},"4":{},"5":{},"6":{},"7":{},"8":{},"9":{},"10":{},"11":{},"12":{},"13":{},"14":{},"15":{},"16":{},"17":{},"18":{},"19":{},"20":{},"21":{},"22":{},"23":{},"24":{},"25":{},"26":{},"27":{},"28":{},"29":{},"30":{},"31":{},"32":{},"33":{},"34":{},"35":{}},{"0":{"bias":-4.883882999420166,"weights":{"0":-7.989175796508789,"1":-2.7660861015319824,"2":4.493758678436279,"3":-13.033222198486328,"4":4.713771820068359,"5":-8.170190811157227,"6":-1.3549007177352905,"7":-9.845047950744629,"8":-0.8257490992546082,"9":-1.6143102645874023,"10":-6.467330455780029,"11":-3.539289712905884,"12":-1.4680516719818115,"13":5.615724086761475,"14":-0.11742552369832993,"15":5.688401699066162,"16":-15.585951805114746,"17":0.2349671870470047,"18":-5.360053062438965,"19":-1.058746337890625,"20":0.04635259881615639,"21":7.0987229347229,"22":3.273128032684326,"23":-1.7580369710922241,"24":1.7578327655792236,"25":14.329242706298828,"26":2.8864657878875732,"27":-7.655313014984131,"28":-0.7090498208999634,"29":-6.6980485916137695,"30":4.283806800842285,"31":6.774055004119873,"32":5.347481727600098,"33":8.550637245178223,"34":-3.343977928161621,"35":3.15036940574646}},"1":{"bias":-0.5007577538490295,"weights":{"0":-1.3827095031738281,"1":1.5653588771820068,"2":-2.8139843940734863,"3":-3.5928332805633545,"4":6.289706707000732,"5":6.803203582763672,"6":2.8721911907196045,"7":9.362886428833008,"8":-2.9262309074401855,"9":-11.339755058288574,"10":0.25271695852279663,"11":-2.7040271759033203,"12":-1.4510302543640137,"13":-0.41254228353500366,"14":9.149409294128418,"15":-0.7880317568778992,"16":-4.292047500610352,"17":-0.79682856798172,"18":3.0370213985443115,"19":-2.072734832763672,"20":-2.444342851638794,"21":-7.475857734680176,"22":3.494734525680542,"23":7.018991947174072,"24":-10.412976264953613,"25":0.6152970790863037,"26":-3.0232396125793457,"27":-1.334511399269104,"28":0.413108766078949,"29":-5.635560035705566,"30":-5.79081392288208,"31":-7.403143882751465,"32":-2.289097309112549,"33":13.230781555175781,"34":-8.238337516784668,"35":-0.7427966594696045}},"2":{"bias":-0.4381044805049896,"weights":{"0":-9.386534690856934,"1":-0.6386398673057556,"2":-7.199743270874023,"3":3.726191759109497,"4":0.36560747027397156,"5":12.001019477844238,"6":-8.433679580688477,"7":5.730889797210693,"8":5.847602367401123,"9":5.177376747131348,"10":0.25028130412101746,"11":0.3940136432647705,"12":6.04420804977417,"13":-3.2498950958251953,"14":-3.140471935272217,"15":-6.004297256469727,"16":-1.9422194957733154,"17":2.1116445064544678,"18":-0.5241695642471313,"19":7.127405166625977,"20":-11.388664245605469,"21":-5.506947040557861,"22":13.188394546508789,"23":4.700384140014648,"24":-4.506460666656494,"25":-4.856184005737305,"26":-3.942528247833252,"27":8.089859962463379,"28":-11.034076690673828,"29":-2.842620849609375,"30":-3.6325745582580566,"31":1.1352730989456177,"32":2.6539838314056396,"33":-1.4092241525650024,"34":-6.805922985076904,"35":0.4144804775714874}},"3":{"bias":6.394593715667725,"weights":{"0":1.6662778854370117,"1":-4.349008083343506,"2":3.1596386432647705,"3":-3.3442134857177734,"4":-1.5811738967895508,"5":-13.979530334472656,"6":-4.769193172454834,"7":8.173877716064453,"8":9.256202697753906,"9":1.14341402053833,"10":-6.503568649291992,"11":-5.968234062194824,"12":-4.961915493011475,"13":-2.810239553451538,"14":11.550080299377441,"15":-6.825014591217041,"16":8.442622184753418,"17":0.04169971123337746,"18":6.285974502563477,"19":-1.6603248119354248,"20":7.173386573791504,"21":-2.59336519241333,"22":12.290846824645996,"23":5.934875965118408,"24":-8.02389907836914,"25":1.1539535522460938,"26":-1.817040205001831,"27":2.866187334060669,"28":-10.18227481842041,"29":1.9344143867492676,"30":-2.5049633979797363,"31":4.866029739379883,"32":-6.170880317687988,"33":-11.282059669494629,"34":-0.5770307183265686,"35":-4.20960807800293}},"4":{"bias":-5.812736511230469,"weights":{"0":-3.75968599319458,"1":1.4807400703430176,"2":-8.59793472290039,"3":5.259668350219727,"4":-0.3431389331817627,"5":1.5920581817626953,"6":-5.9348859786987305,"7":6.5530314445495605,"8":2.861176013946533,"9":2.0583391189575195,"10":-0.6760272979736328,"11":4.1187310218811035,"12":1.1025677919387817,"13":-4.4734625816345215,"14":-5.460769176483154,"15":4.91332483291626,"16":11.79967975616455,"17":-3.299731969833374,"18":-5.63596773147583,"19":-15.238468170166016,"20":-8.029170036315918,"21":-3.773895740509033,"22":4.057042598724365,"23":3.9957644939422607,"24":4.485980987548828,"25":13.166609764099121,"26":1.3406234979629517,"27":7.874056816101074,"28":-11.182835578918457,"29":-9.470083236694336,"30":-4.695963382720947,"31":-3.474372386932373,"32":9.908942222595215,"33":-7.747828006744385,"34":-8.239741325378418,"35":4.834689617156982}},"5":{"bias":-1.1068083047866821,"weights":{"0":-9.031438827514648,"1":-2.4837779998779297,"2":4.885773658752441,"3":1.7641183137893677,"4":-5.138921737670898,"5":1.9578403234481812,"6":-0.41870182752609253,"7":-10.225442886352539,"8":0.31621381640434265,"9":4.283044338226318,"10":-8.00993824005127,"11":-3.9804399013519287,"12":-3.1039319038391113,"13":1.4785232543945312,"14":-8.525535583496094,"15":-0.5433518886566162,"16":7.447845935821533,"17":-3.9413750171661377,"18":-5.711775779724121,"19":16.52058982849121,"20":-3.4792323112487793,"21":4.449254512786865,"22":10.529132843017578,"23":9.815560340881348,"24":-2.487062931060791,"25":5.152727127075195,"26":6.710188865661621,"27":0.43600746989250183,"28":-7.876535415649414,"29":-11.178367614746094,"30":1.6872299909591675,"31":0.8370924592018127,"32":2.251985549926758,"33":-3.610039710998535,"34":-9.181198120117188,"35":3.847382068634033}},"6":{"bias":0.2628590762615204,"weights":{"0":-0.33343619108200073,"1":-1.358087420463562,"2":-2.7342357635498047,"3":-0.577889621257782,"4":1.7400877475738525,"5":1.7582676410675049,"6":3.083160638809204,"7":15.599373817443848,"8":3.863938808441162,"9":-0.04732048884034157,"10":-12.027207374572754,"11":-1.9864197969436646,"12":-3.036139488220215,"13":2.0368881225585938,"14":-1.1680397987365723,"15":0.13652659952640533,"16":-6.045288562774658,"17":5.637574672698975,"18":-2.4646291732788086,"19":-9.241802215576172,"20":-3.6924149990081787,"21":-1.0554108619689941,"22":5.0294952392578125,"23":4.840129375457764,"24":4.935725212097168,"25":0.5812637805938721,"26":4.597015380859375,"27":-2.9769625663757324,"28":4.054737567901611,"29":-6.005775451660156,"30":-4.666293144226074,"31":3.711346387863159,"32":-8.115153312683105,"33":-6.937735557556152,"34":-2.69098162651062,"35":3.5813522338867188}},"7":{"bias":7.056307792663574,"weights":{"0":-1.3258458375930786,"1":-0.17729952931404114,"2":0.9719465970993042,"3":-5.242697238922119,"4":6.105463027954102,"5":-5.004921913146973,"6":-2.9126250743865967,"7":-1.585465908050537,"8":7.4885334968566895,"9":-4.9691267013549805,"10":1.8729270696640015,"11":1.719628095626831,"12":-2.8011109828948975,"13":-1.1796762943267822,"14":-8.190742492675781,"15":-2.1192705631256104,"16":-7.1258111000061035,"17":10.166182518005371,"18":0.4327954947948456,"19":7.261753082275391,"20":-4.348243713378906,"21":-7.490672588348389,"22":1.3553956747055054,"23":8.526778221130371,"24":-3.1403541564941406,"25":0.4695259928703308,"26":-11.322673797607422,"27":2.750711441040039,"28":-4.591159820556641,"29":-0.48930811882019043,"30":-4.754046440124512,"31":13.776366233825684,"32":-3.0105140209198,"33":-2.5113718509674072,"34":-8.025219917297363,"35":11.678635597229004}},"8":{"bias":-3.0495922565460205,"weights":{"0":-4.34602689743042,"1":6.929262638092041,"2":-6.149394512176514,"3":4.964315891265869,"4":0.6734527945518494,"5":4.416129112243652,"6":1.2911347150802612,"7":0.9742597937583923,"8":0.9482746720314026,"9":0.7183424830436707,"10":-11.437716484069824,"11":5.472876071929932,"12":-1.9386510848999023,"13":-15.719359397888184,"14":-8.061200141906738,"15":5.220888137817383,"16":13.20828914642334,"17":-15.509881019592285,"18":-5.329322814941406,"19":2.2027127742767334,"20":-13.584850311279297,"21":-1.5537062883377075,"22":2.0704152584075928,"23":8.868879318237305,"24":0.466731458902359,"25":-3.2893779277801514,"26":10.97344970703125,"27":-0.06416133046150208,"28":-16.890071868896484,"29":-4.379280090332031,"30":-3.4470553398132324,"31":16.320030212402344,"32":4.996953010559082,"33":-5.05097770690918,"34":0.5386875867843628,"35":9.239243507385254}},"9":{"bias":1.0433329343795776,"weights":{"0":-8.726213455200195,"1":0.7187524437904358,"2":3.154658555984497,"3":-10.958471298217773,"4":-0.2537187337875366,"5":6.420666694641113,"6":-8.09831714630127,"7":-6.187020301818848,"8":-6.373777389526367,"9":-3.1133298873901367,"10":11.935349464416504,"11":1.4778287410736084,"12":-4.412398815155029,"13":-8.976107597351074,"14":10.998952865600586,"15":-1.1580798625946045,"16":1.2175906896591187,"17":5.37315559387207,"18":0.9202948212623596,"19":12.841187477111816,"20":-2.515758991241455,"21":8.058402061462402,"22":5.767817497253418,"23":-14.847607612609863,"24":-1.717124342918396,"25":0.5271661281585693,"26":0.6202765107154846,"27":10.321533203125,"28":-7.173339366912842,"29":-1.3921594619750977,"30":3.784109354019165,"31":-6.504852294921875,"32":-8.270408630371094,"33":-3.024493932723999,"34":-2.8614654541015625,"35":6.661775588989258}},"10":{"bias":-5.100813865661621,"weights":{"0":0.22037003934383392,"1":-3.2007832527160645,"2":-5.589295387268066,"3":0.4788374900817871,"4":6.636309623718262,"5":10.36810302734375,"6":-4.960004806518555,"7":-0.7544923424720764,"8":7.460073471069336,"9":-1.8575608730316162,"10":-10.353475570678711,"11":-11.942840576171875,"12":10.779681205749512,"13":-1.5440986156463623,"14":0.549868106842041,"15":3.176093101501465,"16":6.047066688537598,"17":-16.490079879760742,"18":2.5289909839630127,"19":-3.299893617630005,"20":1.705845832824707,"21":-11.991820335388184,"22":6.846408843994141,"23":3.5190248489379883,"24":2.7290639877319336,"25":1.603123664855957,"26":3.8333053588867188,"27":-0.9909204840660095,"28":-7.1368536949157715,"29":-2.035296678543091,"30":0.2544911801815033,"31":3.3868603706359863,"32":5.369828701019287,"33":-8.691290855407715,"34":-3.6953577995300293,"35":-2.516369104385376}},"11":{"bias":-4.13489294052124,"weights":{"0":5.974757671356201,"1":-1.926774024963379,"2":-9.718369483947754,"3":-9.986574172973633,"4":6.269571781158447,"5":3.8271899223327637,"6":-5.087375164031982,"7":-6.614691734313965,"8":-12.22830581665039,"9":-5.845849514007568,"10":7.403118133544922,"11":1.380077838897705,"12":12.637015342712402,"13":-11.816634178161621,"14":17.886926651000977,"15":2.9545528888702393,"16":-11.647431373596191,"17":-8.738171577453613,"18":-8.066329002380371,"19":10.305350303649902,"20":2.724597692489624,"21":1.8907164335250854,"22":12.29035472869873,"23":-4.693032741546631,"24":-4.413423538208008,"25":6.029280185699463,"26":-0.4061855971813202,"27":10.926423072814941,"28":-0.5517446398735046,"29":13.363812446594238,"30":-1.961935043334961,"31":-0.8089604377746582,"32":-0.5138801336288452,"33":5.679141521453857,"34":-14.164742469787598,"35":-7.9646100997924805}},"12":{"bias":2.147797107696533,"weights":{"0":-6.868844032287598,"1":-2.7025256156921387,"2":-12.061960220336914,"3":5.910447120666504,"4":-5.477344989776611,"5":8.099119186401367,"6":-0.24181097745895386,"7":7.92262077331543,"8":3.1585638523101807,"9":-0.647120475769043,"10":-4.138587951660156,"11":2.7617063522338867,"12":-2.737478017807007,"13":5.133464813232422,"14":1.2010222673416138,"15":1.2485519647598267,"16":-2.616539478302002,"17":-1.2991966009140015,"18":-4.117380619049072,"19":4.8489179611206055,"20":-3.6184701919555664,"21":-0.7247682213783264,"22":-2.679959535598755,"23":2.340928792953491,"24":2.874680519104004,"25":1.110394835472107,"26":8.01860523223877,"27":-1.0388882160186768,"28":-4.484610557556152,"29":-10.374468803405762,"30":-4.817998886108398,"31":10.541296005249023,"32":1.3311684131622314,"33":-5.667463302612305,"34":-5.036588668823242,"35":2.5775554180145264}},"13":{"bias":-1.4918879270553589,"weights":{"0":-5.377889156341553,"1":2.552353858947754,"2":-9.059860229492188,"3":-1.6410568952560425,"4":-5.215575218200684,"5":7.228773593902588,"6":-2.500842809677124,"7":-2.5886788368225098,"8":2.722235918045044,"9":-4.8990159034729,"10":4.454507350921631,"11":0.15111686289310455,"12":-3.9966959953308105,"13":-2.158055067062378,"14":5.204782962799072,"15":-1.794250726699829,"16":-1.264012336730957,"17":10.565288543701172,"18":-0.07682746648788452,"19":1.3593671321868896,"20":-2.232935667037964,"21":1.9549583196640015,"22":-0.5719919204711914,"23":-12.17054271697998,"24":2.8703932762145996,"25":-1.4313337802886963,"26":-3.7488677501678467,"27":2.5045907497406006,"28":0.7400619387626648,"29":0.06780291348695755,"30":1.7615630626678467,"31":2.1481590270996094,"32":0.20258484780788422,"33":3.080936908721924,"34":0.2294296771287918,"35":0.09560412168502808}},"14":{"bias":9.494373321533203,"weights":{"0":-11.43147087097168,"1":0.45461735129356384,"2":-2.2112252712249756,"3":-4.146987438201904,"4":9.18496322631836,"5":-6.076013565063477,"6":-2.43300461769104,"7":-3.718200206756592,"8":8.751910209655762,"9":-4.122951984405518,"10":-1.8208842277526855,"11":4.618340492248535,"12":-7.9364848136901855,"13":-7.844616413116455,"14":11.265528678894043,"15":-4.445079326629639,"16":-2.7668986320495605,"17":6.096456050872803,"18":-0.8999265432357788,"19":7.080103397369385,"20":-8.871856689453125,"21":1.8636490106582642,"22":-7.314028263092041,"23":2.747598171234131,"24":3.155609130859375,"25":9.941519737243652,"26":0.9124361872673035,"27":3.945046901702881,"28":-7.013837814331055,"29":-10.84621524810791,"30":-2.5335240364074707,"31":5.063004016876221,"32":6.452346324920654,"33":-4.058323860168457,"34":9.187113761901855,"35":-2.216308355331421}},"15":{"bias":-2.5247366428375244,"weights":{"0":-6.24308443069458,"1":-7.353397846221924,"2":-5.318392753601074,"3":-13.241413116455078,"4":11.959321975708008,"5":-7.127774715423584,"6":-5.099747180938721,"7":-9.669992446899414,"8":3.8365039825439453,"9":0.17672951519489288,"10":-7.0651326179504395,"11":-2.701467752456665,"12":1.589851975440979,"13":9.583965301513672,"14":11.889151573181152,"15":6.796760082244873,"16":-1.5208947658538818,"17":-0.746871829032898,"18":0.6495206952095032,"19":-6.34174108505249,"20":-1.2098649740219116,"21":7.39823055267334,"22":7.316354751586914,"23":8.31688117980957,"24":-1.156553864479065,"25":4.214608669281006,"26":-9.002298355102539,"27":-8.877646446228027,"28":2.8788585662841797,"29":6.791540145874023,"30":1.9142545461654663,"31":1.8881068229675293,"32":-4.957062721252441,"33":5.384037017822266,"34":-8.345599174499512,"35":-1.817018747329712}},"16":{"bias":-2.3232216835021973,"weights":{"0":5.04638671875,"1":-5.441123008728027,"2":-6.450239658355713,"3":0.22610552608966827,"4":-0.6101697683334351,"5":4.878039836883545,"6":-1.9527339935302734,"7":8.52806282043457,"8":0.44363725185394287,"9":-1.5967135429382324,"10":-3.9436120986938477,"11":0.12727712094783783,"12":3.2095909118652344,"13":-4.347544193267822,"14":-7.011826992034912,"15":0.14740213751792908,"16":6.128256320953369,"17":6.6204447746276855,"18":-2.7153408527374268,"19":-2.6316606998443604,"20":-1.534369707107544,"21":-5.8564133644104,"22":8.717070579528809,"23":2.0245590209960938,"24":0.8121423721313477,"25":0.7029327154159546,"26":-0.030097059905529022,"27":-1.4479938745498657,"28":-3.888472080230713,"29":-2.8809359073638916,"30":1.308040976524353,"31":-3.87678861618042,"32":-1.6381895542144775,"33":-4.485960006713867,"34":-2.207075357437134,"35":2.6493847370147705}},"17":{"bias":-5.611861228942871,"weights":{"0":6.730777263641357,"1":-6.968554496765137,"2":-0.5890678763389587,"3":-6.121732711791992,"4":5.404096603393555,"5":1.842685580253601,"6":-4.173725128173828,"7":-1.7572906017303467,"8":-4.654626846313477,"9":-1.9331638813018799,"10":-0.9247729182243347,"11":-1.288623571395874,"12":11.296682357788086,"13":-3.590951919555664,"14":16.296804428100586,"15":4.535290241241455,"16":0.052401330322027206,"17":-11.577651977539062,"18":-5.433227062225342,"19":-6.020209312438965,"20":-0.2359302043914795,"21":2.0692975521087646,"22":10.900851249694824,"23":0.29154306650161743,"24":-0.8643571734428406,"25":2.1957156658172607,"26":1.0695521831512451,"27":5.137696266174316,"28":0.8446872234344482,"29":8.137680053710938,"30":-5.30327844619751,"31":-5.025393486022949,"32":-6.652338981628418,"33":3.9330837726593018,"34":-1.854997158050537,"35":-8.519377708435059}}},{"0":{"bias":0.08714397996664047,"weights":{"0":-14.335567474365234,"1":-13.527374267578125,"2":2.9269332885742188,"3":1.1766760349273682,"4":2.4345343112945557,"5":0.609801709651947,"6":19.67464256286621,"7":-22.179466247558594,"8":11.99155330657959,"9":-7.957292556762695,"10":6.800116062164307,"11":7.302174091339111,"12":-19.738954544067383,"13":5.002377033233643,"14":6.110097408294678,"15":6.332455158233643,"16":-20.902774810791016,"17":-6.277031421661377}},"1":{"bias":0.281540185213089,"weights":{"0":-3.7925403118133545,"1":-2.1423277854919434,"2":9.794034957885742,"3":-11.948569297790527,"4":-14.383618354797363,"5":-13.354438781738281,"6":-6.42667818069458,"7":-1.6562960147857666,"8":13.510297775268555,"9":8.252187728881836,"10":-12.419212341308594,"11":-0.5241617560386658,"12":0.10135981440544128,"13":-14.734009742736816,"14":6.480036735534668,"15":4.667040824890137,"16":21.07733917236328,"17":-0.6944378614425659}}}],"outputLookup":false,"inputLookup":false,"activation":"sigmoid","trainOpts":{"iterations":20000,"errorThresh":0.005,"log":true,"logPeriod":100,"learningRate":0.3,"momentum":0.1,"callbackPeriod":10}}