{"sizes":[39,19,2],"layers":[{"0":{},"1":{},"2":{},"3":{},"4":{},"5":{},"6":{},"7":{},"8":{},"9":{},"10":{},"11":{},"12":{},"13":{},"14":{},"15":{},"16":{},"17":{},"18":{},"19":{},"20":{},"21":{},"22":{},"23":{},"24":{},"25":{},"26":{},"27":{},"28":{},"29":{},"30":{},"31":{},"32":{},"33":{},"34":{},"35":{},"36":{},"37":{},"38":{}},{"0":{"bias":-1.131761908531189,"weights":{"0":1.474076509475708,"1":-0.5743687748908997,"2":-0.15036003291606903,"3":2.4741694927215576,"4":1.7606652975082397,"5":-0.365442156791687,"6":0.9421564936637878,"7":-0.3571321368217468,"8":0.3363363444805145,"9":-2.0523552894592285,"10":0.6009516716003418,"11":-0.49832651019096375,"12":-1.4759684801101685,"13":1.8603121042251587,"14":0.2910952866077423,"15":-1.6633771657943726,"16":0.5863965749740601,"17":-0.8288500308990479,"18":-1.2194629907608032,"19":1.8385255336761475,"20":0.2083151638507843,"21":-0.626015305519104,"22":1.0002082586288452,"23":-0.8273119330406189,"24":0.3615451753139496,"25":0.7954860925674438,"26":0.19598864018917084,"27":1.1647915840148926,"28":0.5396527051925659,"29":-0.3262890577316284,"30":0.22341212630271912,"31":-0.4435183107852936,"32":0.04217757284641266,"33":-1.5053287744522095,"34":-1.089196801185608,"35":0.3971034586429596,"36":-0.567155659198761,"37":2.2883996963500977,"38":-1.7764309644699097}},"1":{"bias":-0.6833551526069641,"weights":{"0":-0.1193094551563263,"1":-0.3643130660057068,"2":0.6327507495880127,"3":-0.09331691265106201,"4":-0.3467533588409424,"5":0.11656858772039413,"6":0.21107029914855957,"7":-0.5425242185592651,"8":0.05673821270465851,"9":0.28521737456321716,"10":-0.6143617033958435,"11":0.2963220775127411,"12":-0.10572805255651474,"13":-0.407579630613327,"14":0.5781581401824951,"15":-0.1387730836868286,"16":-0.5645096302032471,"17":0.19880656898021698,"18":0.02187911793589592,"19":-0.3185511827468872,"20":0.33454087376594543,"21":-0.3287217617034912,"22":-0.7493127584457397,"23":0.1218755766749382,"24":-0.8464383482933044,"25":-0.4925561249256134,"26":0.6016396880149841,"27":-0.31504738330841064,"28":-0.3808668553829193,"29":0.3197529911994934,"30":-0.19903749227523804,"31":-0.5379642844200134,"32":-0.027250437065958977,"33":-0.4207017123699188,"34":-0.8225072026252747,"35":0.06696928292512894,"36":-0.4834408164024353,"37":-0.81361985206604,"38":0.6453079581260681}},"2":{"bias":-0.8517330288887024,"weights":{"0":2.0085768699645996,"1":1.0327129364013672,"2":-3.1403660774230957,"3":-0.048334185034036636,"4":-0.2466757595539093,"5":-1.6395034790039062,"6":-1.652956247329712,"7":1.4548157453536987,"8":-1.615468978881836,"9":2.4286370277404785,"10":1.369650959968567,"11":-4.823995590209961,"12":-0.33984652161598206,"13":-0.24705331027507782,"14":-3.497912883758545,"15":-0.4638700485229492,"16":2.7508955001831055,"17":-2.077122449874878,"18":-1.8513449430465698,"19":0.7099215984344482,"20":-3.6087517738342285,"21":2.037445306777954,"22":1.7911856174468994,"23":-2.113966703414917,"24":1.8765811920166016,"25":0.4909900426864624,"26":-1.658664584159851,"27":-1.6451854705810547,"28":0.46390265226364136,"29":-0.8899987936019897,"30":-3.6014211177825928,"31":2.718703508377075,"32":-3.2866764068603516,"33":0.9547324180603027,"34":0.721268355846405,"35":-4.003154754638672,"36":-0.2024945765733719,"37":0.8021288514137268,"38":-0.4102899730205536}},"3":{"bias":-0.7338733673095703,"weights":{"0":0.19243425130844116,"1":0.19724927842617035,"2":0.20206734538078308,"3":-0.9195140600204468,"4":-0.8430361151695251,"5":0.39590123295783997,"6":0.16670650243759155,"7":-0.8251685500144958,"8":0.502225935459137,"9":-0.7949022054672241,"10":-0.24921950697898865,"11":0.06652896106243134,"12":-0.4820150136947632,"13":-0.49957475066185,"14":0.8416352868080139,"15":-0.773108184337616,"16":-0.27466389536857605,"17":-0.46748819947242737,"18":0.2354242503643036,"19":-0.21113552153110504,"20":-0.002393149072304368,"21":1.1101081371307373,"22":-0.7649816870689392,"23":-0.24273714423179626,"24":-0.617477536201477,"25":0.21461370587348938,"26":-0.253528356552124,"27":0.982189953327179,"28":-0.8025628924369812,"29":0.08604548126459122,"30":0.028427207842469215,"31":-0.8380637764930725,"32":-0.2917957901954651,"33":0.2407897710800171,"34":-1.5274877548217773,"35":-0.18929539620876312,"36":-0.4577295482158661,"37":-0.6291975378990173,"38":-0.2934590280056}},"4":{"bias":0.34424087405204773,"weights":{"0":-0.5574742555618286,"1":0.29376885294914246,"2":0.8890827894210815,"3":-0.12834350764751434,"4":0.2028304636478424,"5":0.4014045298099518,"6":-0.20186206698417664,"7":0.9013922214508057,"8":0.22364479303359985,"9":-0.11632966995239258,"10":0.4843452572822571,"11":0.7931011915206909,"12":-0.4014066457748413,"13":0.03802591934800148,"14":0.17965641617774963,"15":-1.6297767162322998,"16":0.20761844515800476,"17":0.5912852883338928,"18":-0.7354199290275574,"19":0.8238208293914795,"20":-0.007009408436715603,"21":-1.2308632135391235,"22":0.5686559677124023,"23":-0.877591609954834,"24":-1.081930160522461,"25":0.5862038731575012,"26":0.2376757115125656,"27":-1.6004083156585693,"28":0.7322198152542114,"29":0.5459370613098145,"30":-1.1690943241119385,"31":-0.6942902207374573,"32":0.5740609765052795,"33":-1.2704063653945923,"34":0.40466418862342834,"35":0.29485732316970825,"36":-0.00355244311504066,"37":0.570401668548584,"38":-1.0606979131698608}},"5":{"bias":-0.5798574686050415,"weights":{"0":0.38745611906051636,"1":0.14672432839870453,"2":0.7130669951438904,"3":0.3424701988697052,"4":-0.712554931640625,"5":0.053389016538858414,"6":-0.21652500331401825,"7":-1.0872067213058472,"8":-0.08708202093839645,"9":0.6166456341743469,"10":-0.6028763651847839,"11":0.019470326602458954,"12":-0.5138834118843079,"13":-0.6329176425933838,"14":1.2201669216156006,"15":-0.12653373181819916,"16":-0.4382089376449585,"17":0.3713603913784027,"18":-0.12990380823612213,"19":-0.602336585521698,"20":0.18261680006980896,"21":-0.36634621024131775,"22":-0.4469294548034668,"23":0.41091498732566833,"24":-1.2090699672698975,"25":-1.0077588558197021,"26":0.3010317385196686,"27":-0.4673386216163635,"28":-0.42863550782203674,"29":-0.3172903060913086,"30":0.06281441450119019,"31":-0.42960891127586365,"32":-0.3810177445411682,"33":-0.4977553188800812,"34":-1.0519344806671143,"35":0.12231133878231049,"36":-0.39189034700393677,"37":-0.7134937047958374,"38":0.5275273323059082}},"6":{"bias":-0.34187012910842896,"weights":{"0":-0.7056671380996704,"1":-0.3857686221599579,"2":-0.10192060470581055,"3":-0.8133917450904846,"4":-0.2281411737203598,"5":0.058605827391147614,"6":-0.11448869109153748,"7":-0.48442408442497253,"8":0.19471295177936554,"9":-0.34347665309906006,"10":-0.6186486482620239,"11":0.021569572389125824,"12":-0.004615462850779295,"13":-0.07822883874177933,"14":-0.21915969252586365,"15":-0.15133750438690186,"16":-0.2775404453277588,"17":-0.42172864079475403,"18":-0.12961280345916748,"19":-0.07867006212472916,"20":-0.09233073145151138,"21":-0.28279417753219604,"22":-0.18590837717056274,"23":0.27331697940826416,"24":-0.7467982172966003,"25":-0.09623324126005173,"26":-0.38702207803726196,"27":-0.052896272391080856,"28":-0.6059132218360901,"29":0.17169107496738434,"30":-0.4526527523994446,"31":0.008339681662619114,"32":-0.14422403275966644,"33":-0.5504831671714783,"34":-0.10833999514579773,"35":0.5176649689674377,"36":-0.329183429479599,"37":0.038071051239967346,"38":0.31892114877700806}},"7":{"bias":-0.815315842628479,"weights":{"0":-0.22815467417240143,"1":0.05351288244128227,"2":0.06899775564670563,"3":-0.1645772010087967,"4":-0.01981065236032009,"5":0.057086244225502014,"6":-0.17553244531154633,"7":0.04399286210536957,"8":0.06922298669815063,"9":-0.34858593344688416,"10":0.03754693642258644,"11":0.06566240638494492,"12":-0.23699983954429626,"13":-0.07329168170690536,"14":0.027649682015180588,"15":-0.2080991417169571,"16":-0.016426516696810722,"17":-0.012092320248484612,"18":-0.166444331407547,"19":-0.15390107035636902,"20":0.09714565426111221,"21":-0.24974846839904785,"22":-0.1842428743839264,"23":-0.009493084624409676,"24":-0.027449678629636765,"25":-0.20966507494449615,"26":-0.01892012171447277,"27":-0.47710227966308594,"28":0.030575281009078026,"29":0.04546558856964111,"30":-0.5057315230369568,"31":0.00844918005168438,"32":-0.041317667812108994,"33":-0.33372578024864197,"34":0.0168163925409317,"35":0.061232421547174454,"36":-0.5262575745582581,"37":-0.26993998885154724,"38":-0.01738532818853855}},"8":{"bias":-2.833324909210205,"weights":{"0":-1.371751070022583,"1":2.625621795654297,"2":1.4248521327972412,"3":-1.1511504650115967,"4":2.175903081893921,"5":-0.8616331815719604,"6":-0.5234960913658142,"7":2.3356778621673584,"8":-1.6833865642547607,"9":-0.2536558210849762,"10":1.3775569200515747,"11":-2.3718957901000977,"12":-0.5932815670967102,"13":0.6474187970161438,"14":-0.6809296607971191,"15":1.312883973121643,"16":0.045236244797706604,"17":-1.6122629642486572,"18":-0.9867262840270996,"19":0.20208458602428436,"20":-1.6545270681381226,"21":1.5694221258163452,"22":1.5224496126174927,"23":-0.888248860836029,"24":1.3399442434310913,"25":0.17121237516403198,"26":-2.4327445030212402,"27":2.781846284866333,"28":1.4186440706253052,"29":-4.496213436126709,"30":2.691208839416504,"31":1.1517763137817383,"32":-2.2493109703063965,"33":2.7681491374969482,"34":0.9449065923690796,"35":-3.394044876098633,"36":-1.705014705657959,"37":-0.9420414566993713,"38":-2.787684440612793}},"9":{"bias":-1.1434558629989624,"weights":{"0":-0.5234537720680237,"1":1.1628633737564087,"2":0.6466069221496582,"3":-0.7335106134414673,"4":0.8311216235160828,"5":-0.14183753728866577,"6":-1.6836726665496826,"7":1.6412346363067627,"8":-0.16168512403964996,"9":-0.8716250658035278,"10":1.1348929405212402,"11":2.650869369506836,"12":-0.36753717064857483,"13":-0.99330735206604,"14":2.1187021732330322,"15":0.7248731255531311,"16":0.019924329593777657,"17":-0.5347840785980225,"18":1.457231879234314,"19":1.8817811012268066,"20":-2.302712917327881,"21":1.3598376512527466,"22":0.4843359589576721,"23":-1.297675609588623,"24":-0.8536731600761414,"25":-0.1634923368692398,"26":-0.4117271602153778,"27":-0.674606442451477,"28":1.192084550857544,"29":-1.7276431322097778,"30":0.07330858707427979,"31":-1.5737011432647705,"32":0.303874671459198,"33":-1.2894647121429443,"34":2.1659889221191406,"35":0.1040860116481781,"36":-0.6217958927154541,"37":0.3666731119155884,"38":-2.5181362628936768}},"10":{"bias":-0.24770404398441315,"weights":{"0":-0.30758100748062134,"1":0.02297002263367176,"2":-0.4606308341026306,"3":-0.7942061424255371,"4":-0.36564984917640686,"5":-0.10364241153001785,"6":-0.06229741498827934,"7":-0.5321030020713806,"8":0.1314718872308731,"9":-0.5209263563156128,"10":-0.2574356496334076,"11":-0.2844848036766052,"12":0.5661327838897705,"13":-0.3567928969860077,"14":-0.35846930742263794,"15":-0.061460789293050766,"16":-0.41012993454933167,"17":-0.3567824065685272,"18":-0.6156486868858337,"19":0.3682858943939209,"20":-0.2753605246543884,"21":-0.4906107187271118,"22":-0.07745134830474854,"23":-0.01406550407409668,"24":-1.037247657775879,"25":0.037352968007326126,"26":-0.4497433006763458,"27":-0.29052773118019104,"28":-0.24877430498600006,"29":0.16953516006469727,"30":-0.5113559365272522,"31":0.0852576345205307,"32":0.08049376308917999,"33":-0.16394619643688202,"34":0.26747626066207886,"35":0.6487535834312439,"36":-0.306844025850296,"37":0.5487321019172668,"38":0.30415692925453186}},"11":{"bias":-0.6876738667488098,"weights":{"0":-0.2900175154209137,"1":-0.07304330915212631,"2":-0.021807542070746422,"3":-0.223525732755661,"4":0.0911867544054985,"5":0.25562793016433716,"6":-0.6721352934837341,"7":-0.0719393864274025,"8":-0.04237452149391174,"9":0.023857375606894493,"10":0.05238349735736847,"11":-0.09840735793113708,"12":-0.5528718829154968,"13":0.12217549234628677,"14":0.0848429799079895,"15":-0.22835025191307068,"16":0.0959576815366745,"17":0.35014453530311584,"18":-0.13190658390522003,"19":-0.08583085983991623,"20":0.23987482488155365,"21":-0.37295734882354736,"22":0.06703442335128784,"23":0.10003254562616348,"24":0.23756438493728638,"25":-0.12013629823923111,"26":0.3433036208152771,"27":-0.2029094398021698,"28":-0.06477931141853333,"29":0.09464622288942337,"30":-0.41011983156204224,"31":-0.08616998791694641,"32":-0.1772920936346054,"33":-0.39237460494041443,"34":-0.22720414400100708,"35":-0.1936323195695877,"36":-0.3110346496105194,"37":-0.266502320766449,"38":0.06810395419597626}},"12":{"bias":-3.145657777786255,"weights":{"0":-0.9085134863853455,"1":-0.25082752108573914,"2":2.090367078781128,"3":-0.7692722082138062,"4":-1.6642712354660034,"5":4.310750961303711,"6":0.8546929955482483,"7":-1.1714037656784058,"8":3.406864643096924,"9":-0.4112530052661896,"10":1.0253750085830688,"11":2.6572093963623047,"12":0.495890349149704,"13":-2.112431287765503,"14":2.2409183979034424,"15":-0.45940732955932617,"16":-0.1844612956047058,"17":1.5541971921920776,"18":0.7787879109382629,"19":-1.3152422904968262,"20":1.4461227655410767,"21":-0.15600356459617615,"22":0.9950342774391174,"23":1.173628330230713,"24":1.751132845878601,"25":-2.1553611755371094,"26":2.5768988132476807,"27":3.0307698249816895,"28":-2.604459285736084,"29":3.5686845779418945,"30":0.011091100983321667,"31":-2.9293274879455566,"32":3.5867035388946533,"33":-1.242817759513855,"34":-3.13594913482666,"35":0.5169019103050232,"36":-1.892727255821228,"37":-2.255199909210205,"38":3.765951633453369}},"13":{"bias":0.0332908108830452,"weights":{"0":1.1157442331314087,"1":-0.4410211145877838,"2":0.7669410109519958,"3":-0.1886959820985794,"4":0.4534991979598999,"5":0.7506018877029419,"6":-1.5094350576400757,"7":0.49751853942871094,"8":1.0196315050125122,"9":-0.0653478354215622,"10":-0.07110466063022614,"11":0.7674044966697693,"12":-1.2251646518707275,"13":-0.5433497428894043,"14":0.9900586009025574,"15":-1.0832149982452393,"16":-0.696063756942749,"17":1.5408152341842651,"18":-0.8463766574859619,"19":-1.2859081029891968,"20":0.08131548017263412,"21":-0.37827256321907043,"22":-0.5928277969360352,"23":-0.23951329290866852,"24":-0.21536029875278473,"25":-0.21113519370555878,"26":-0.6227518320083618,"27":0.0830904021859169,"28":-0.9969038367271423,"29":-0.6102075576782227,"30":0.07549029588699341,"31":-1.0833526849746704,"32":-0.9933493137359619,"33":0.7078844308853149,"34":-1.4117196798324585,"35":-0.4615758955478668,"36":0.07992759346961975,"37":-1.5689730644226074,"38":0.4642370343208313}},"14":{"bias":-0.5388075113296509,"weights":{"0":-0.41143369674682617,"1":-0.034710947424173355,"2":0.25925907492637634,"3":-0.5182376503944397,"4":0.05882740765810013,"5":-0.027509454637765884,"6":-1.1828056573867798,"7":0.08086970448493958,"8":-0.19977489113807678,"9":0.33830228447914124,"10":0.382936030626297,"11":-0.267404705286026,"12":-0.8297778964042664,"13":-0.16171930730342865,"14":0.0528227835893631,"15":-0.35060110688209534,"16":0.011532586067914963,"17":0.5367999076843262,"18":-0.36407649517059326,"19":-0.3389148712158203,"20":0.4384291172027588,"21":-0.33264899253845215,"22":0.0008095638477243483,"23":0.03684520348906517,"24":0.5305925011634827,"25":-0.2105017900466919,"26":0.41274741291999817,"27":-0.2043943703174591,"28":0.5131467580795288,"29":-0.22965013980865479,"30":0.05357064679265022,"31":-0.08180441707372665,"32":-0.20505227148532867,"33":-0.11769801378250122,"34":0.17429526150226593,"35":-0.15057305991649628,"36":-0.14278888702392578,"37":-0.24008019268512726,"38":-0.1425035148859024}},"15":{"bias":-0.3919243812561035,"weights":{"0":-0.9736127257347107,"1":-0.39730748534202576,"2":-0.24734549224376678,"3":-0.5644969940185547,"4":-0.09872746467590332,"5":-0.06436966359615326,"6":-0.02015898935496807,"7":-0.5084555149078369,"8":0.025635914877057076,"9":-0.10490890592336655,"10":-0.5978487730026245,"11":0.12428313493728638,"12":-0.20392382144927979,"13":-0.44240614771842957,"14":-0.09537428617477417,"15":-0.25781843066215515,"16":-0.1981840282678604,"17":-0.28550243377685547,"18":-0.16169464588165283,"19":-0.23940755426883698,"20":-0.023427480831742287,"21":-0.48785731196403503,"22":-0.3737320005893707,"23":0.06693199276924133,"24":-0.48934686183929443,"25":-0.07533605396747589,"26":-0.14485472440719604,"27":0.032108124345541,"28":-0.9718543291091919,"29":-0.06873635947704315,"30":-0.4845443069934845,"31":0.16086557507514954,"32":-0.2315567135810852,"33":-0.5675796270370483,"34":-0.2123221904039383,"35":0.18506382405757904,"36":-0.21378569304943085,"37":-0.16612006723880768,"38":0.45055273175239563}},"16":{"bias":-0.5324550867080688,"weights":{"0":-0.3379228413105011,"1":-0.1197105199098587,"2":0.07669317722320557,"3":-0.02561223693192005,"4":0.1217273697257042,"5":-0.17909273505210876,"6":-0.7774473428726196,"7":0.16518238186836243,"8":-0.1824093610048294,"9":0.09012595564126968,"10":-0.15787766873836517,"11":0.005061566364020109,"12":-0.6236106753349304,"13":-0.08814001828432083,"14":-0.03145616501569748,"15":0.26063600182533264,"16":0.19550953805446625,"17":0.3845534920692444,"18":-0.08162803947925568,"19":-0.18914411962032318,"20":0.26632168889045715,"21":-0.5356645584106445,"22":0.013439133763313293,"23":-0.22930274903774261,"24":0.8301507830619812,"25":-0.17859122157096863,"26":0.07569858431816101,"27":-0.057652801275253296,"28":-0.07669278979301453,"29":-0.20906786620616913,"30":0.04415503144264221,"31":-0.16925384104251862,"32":-0.31949782371520996,"33":-0.31610390543937683,"34":0.0249068234115839,"35":-0.2486417293548584,"36":-0.2770126760005951,"37":0.06179562211036682,"38":0.4164198637008667}},"17":{"bias":0.7058737874031067,"weights":{"0":2.181673288345337,"1":0.5673145651817322,"2":2.399273633956909,"3":1.4499815702438354,"4":-0.4213418960571289,"5":0.5489330291748047,"6":-1.3189352750778198,"7":-0.48064637184143066,"8":-0.10170405358076096,"9":0.7730599045753479,"10":-0.01061462052166462,"11":0.2172612100839615,"12":-1.7397934198379517,"13":-1.1053332090377808,"14":1.511684536933899,"15":-0.8863677382469177,"16":-1.6742379665374756,"17":1.1078115701675415,"18":-0.5934208631515503,"19":-2.0326292514801025,"20":-0.27333202958106995,"21":-0.9686111807823181,"22":-0.43114057183265686,"23":-0.09053914248943329,"24":-2.3805177211761475,"25":-1.1170997619628906,"26":-0.38795483112335205,"27":-1.843588948249817,"28":0.7870819568634033,"29":-0.9601424932479858,"30":1.0391414165496826,"31":-0.9999977350234985,"32":-0.9245060682296753,"33":0.27776411175727844,"34":-1.0881751775741577,"35":-0.47348880767822266,"36":0.17143170535564423,"37":-0.6168379187583923,"38":0.8186836838722229}},"18":{"bias":-1.028229832649231,"weights":{"0":-0.024380525574088097,"1":2.5614500045776367,"2":-1.2758432626724243,"3":0.5450220704078674,"4":0.6975623965263367,"5":1.1813817024230957,"6":1.1969163417816162,"7":1.4151215553283691,"8":0.7489318251609802,"9":0.6295879483222961,"10":1.9051593542099,"11":0.20327968895435333,"12":0.5173718929290771,"13":1.707940697669983,"14":0.34617385268211365,"15":-1.0259994268417358,"16":1.3205552101135254,"17":0.6624414920806885,"18":-0.3144087791442871,"19":-0.4850335419178009,"20":0.2735535204410553,"21":-3.4300966262817383,"22":1.843642234802246,"23":0.5863200426101685,"24":-3.033216953277588,"25":1.3486844301223755,"26":-0.11282411962747574,"27":-1.145823359489441,"28":0.1124798059463501,"29":1.7744709253311157,"30":1.0165607929229736,"31":0.1698215752840042,"32":0.745038628578186,"33":0.39838555455207825,"34":0.9197354316711426,"35":1.0971078872680664,"36":-0.6516296863555908,"37":1.0949127674102783,"38":-1.9358471632003784}}},{"0":{"bias":0.42779186367988586,"weights":{"0":-1.6342004537582397,"1":0.0603930689394474,"2":-2.2270822525024414,"3":-1.4294689893722534,"4":-1.4515427350997925,"5":0.08981973677873611,"6":-0.7747706770896912,"7":0.29911530017852783,"8":-1.2489374876022339,"9":-1.0504660606384277,"10":-1.419194221496582,"11":0.8722195625305176,"12":1.5898234844207764,"13":0.8875584602355957,"14":1.2596701383590698,"15":-0.42162299156188965,"16":1.1817657947540283,"17":1.5032728910446167,"18":-1.9079731702804565}},"1":{"bias":0.5994093418121338,"weights":{"0":-2.810730218887329,"1":0.931963324546814,"2":-4.271199703216553,"3":1.318655252456665,"4":-2.415722608566284,"5":1.3808870315551758,"6":0.9893209338188171,"7":-0.05329085886478424,"8":-2.151726245880127,"9":-3.72342848777771,"10":0.756428599357605,"11":-0.17774423956871033,"12":3.001433849334717,"13":1.7536420822143555,"14":-0.8523484468460083,"15":1.2122441530227661,"16":-0.5548881888389587,"17":1.8961364030838013,"18":-3.45674991607666}}}],"outputLookup":false,"inputLookup":false,"activation":"sigmoid","trainOpts":{"iterations":20000,"errorThresh":0.005,"log":true,"logPeriod":100,"learningRate":0.3,"momentum":0.1,"callbackPeriod":10}}